<?xml version="1.0"?>
<opencv_storage>
<cascade>
  <stageType>BOOST</stageType>
  <featureType>HAAR</featureType>
  <height>50</height>
  <width>50</width>
  <stageParams>
    <boostType>GAB</boostType>
    <minHitRate>9.9500000476837158e-01</minHitRate>
    <maxFalseAlarm>4.0000000596046448e-01</maxFalseAlarm>
    <weightTrimRate>9.4999999999999996e-01</weightTrimRate>
    <maxDepth>1</maxDepth>
    <maxWeakCount>100</maxWeakCount></stageParams>
  <featureParams>
    <maxCatCount>0</maxCatCount>
    <featSize>1</featSize>
    <mode>ALL</mode></featureParams>
  <stageNum>3</stageNum>
  <stages>
    <!-- stage 0 -->
    <_>
      <maxWeakCount>6</maxWeakCount>
      <stageThreshold>-1.0362931489944458e+00</stageThreshold>
      <weakClassifiers>
        <_>
          <internalNodes>
            0 -1 7 3.1398665159940720e-02</internalNodes>
          <leafValues>
            -8.0213904380798340e-01 4.1666665673255920e-01</leafValues></_>
        <_>
          <internalNodes>
            0 -1 11 -8.6872866377234459e-03</internalNodes>
          <leafValues>
            6.7524665594100952e-01 -4.7697815299034119e-01</leafValues></_>
        <_>
          <internalNodes>
            0 -1 6 -1.5393772628158331e-03</internalNodes>
          <leafValues>
            5.3794687986373901e-01 -4.1139361262321472e-01</leafValues></_>
        <_>
          <internalNodes>
            0 -1 12 2.6380922645330429e-03</internalNodes>
          <leafValues>
            -3.9645907282829285e-01 5.7298070192337036e-01</leafValues></_>
        <_>
          <internalNodes>
            0 -1 4 -2.1256666630506516e-02</internalNodes>
          <leafValues>
            5.6118255853652954e-01 -3.7324279546737671e-01</leafValues></_>
        <_>
          <internalNodes>
            0 -1 0 2.3532689738203771e-05</internalNodes>
          <leafValues>
            -4.7994562983512878e-01 4.8207834362983704e-01</leafValues></_></weakClassifiers></_>
    <!-- stage 1 -->
    <_>
      <maxWeakCount>5</maxWeakCount>
      <stageThreshold>-8.9276260137557983e-01</stageThreshold>
      <weakClassifiers>
        <_>
          <internalNodes>
            0 -1 5 7.3897913098335266e-02</internalNodes>
          <leafValues>
            -7.7493607997894287e-01 7.4193549156188965e-01</leafValues></_>
        <_>
          <internalNodes>
            0 -1 10 4.5390643179416656e-02</internalNodes>
          <leafValues>
            -4.6135413646697998e-01 7.1245235204696655e-01</leafValues></_>
        <_>
          <internalNodes>
            0 -1 13 -5.8061996242031455e-05</internalNodes>
          <leafValues>
            6.1995816230773926e-01 -4.2504715919494629e-01</leafValues></_>
        <_>
          <internalNodes>
            0 -1 1 -2.1446235477924347e-03</internalNodes>
          <leafValues>
            -8.5750204324722290e-01 3.2968178391456604e-01</leafValues></_>
        <_>
          <internalNodes>
            0 -1 2 3.9151421515271068e-04</internalNodes>
          <leafValues>
            -6.0611236095428467e-01 5.3057789802551270e-01</leafValues></_></weakClassifiers></_>
    <!-- stage 2 -->
    <_>
      <maxWeakCount>3</maxWeakCount>
      <stageThreshold>-5.2580273151397705e-01</stageThreshold>
      <weakClassifiers>
        <_>
          <internalNodes>
            0 -1 3 -2.4438051696051843e-05</internalNodes>
          <leafValues>
            1. -8.5224276781082153e-01</leafValues></_>
        <_>
          <internalNodes>
            0 -1 8 6.5581203671172261e-04</internalNodes>
          <leafValues>
            -6.7356002330780029e-01 1.</leafValues></_>
        <_>
          <internalNodes>
            0 -1 9 7.1405862399842590e-05</internalNodes>
          <leafValues>
            -6.3317233324050903e-01 1.</leafValues></_></weakClassifiers></_></stages>
  <features>
    <_>
      <rects>
        <_>
          0 16 4 1 -1.</_>
        <_>
          2 16 2 1 2.</_></rects>
      <tilted>0</tilted></_>
    <_>
      <rects>
        <_>
          2 9 4 16 -1.</_>
        <_>
          2 13 4 8 2.</_></rects>
      <tilted>0</tilted></_>
    <_>
      <rects>
        <_>
          7 27 4 6 -1.</_>
        <_>
          7 27 4 3 2.</_></rects>
      <tilted>1</tilted></_>
    <_>
      <rects>
        <_>
          8 12 4 9 -1.</_>
        <_>
          8 15 4 3 3.</_></rects>
      <tilted>0</tilted></_>
    <_>
      <rects>
        <_>
          9 13 26 10 -1.</_>
        <_>
          22 13 13 10 2.</_></rects>
      <tilted>0</tilted></_>
    <_>
      <rects>
        <_>
          13 16 12 33 -1.</_>
        <_>
          17 27 4 11 9.</_></rects>
      <tilted>0</tilted></_>
    <_>
      <rects>
        <_>
          13 22 9 4 -1.</_>
        <_>
          13 22 9 2 2.</_></rects>
      <tilted>1</tilted></_>
    <_>
      <rects>
        <_>
          13 22 18 28 -1.</_>
        <_>
          13 22 9 14 2.</_>
        <_>
          22 36 9 14 2.</_></rects>
      <tilted>0</tilted></_>
    <_>
      <rects>
        <_>
          17 5 9 15 -1.</_>
        <_>
          20 8 3 15 3.</_></rects>
      <tilted>1</tilted></_>
    <_>
      <rects>
        <_>
          17 21 2 6 -1.</_>
        <_>
          17 21 1 3 2.</_>
        <_>
          18 24 1 3 2.</_></rects>
      <tilted>0</tilted></_>
    <_>
      <rects>
        <_>
          19 5 26 28 -1.</_>
        <_>
          19 5 13 14 2.</_>
        <_>
          32 19 13 14 2.</_></rects>
      <tilted>0</tilted></_>
    <_>
      <rects>
        <_>
          22 18 10 16 -1.</_>
        <_>
          22 18 5 8 2.</_>
        <_>
          27 26 5 8 2.</_></rects>
      <tilted>0</tilted></_>
    <_>
      <rects>
        <_>
          26 35 16 9 -1.</_>
        <_>
          30 35 8 9 2.</_></rects>
      <tilted>0</tilted></_>
    <_>
      <rects>
        <_>
          36 9 2 4 -1.</_>
        <_>
          36 10 2 2 2.</_></rects>
      <tilted>0</tilted></_></features></cascade>
</opencv_storage>
