<?xml version="1.0"?>
<opencv_storage>
<stage1>
  <maxWeakCount>5</maxWeakCount>
  <stageThreshold>-8.9276260137557983e-01</stageThreshold>
  <weakClassifiers>
    <_>
      <internalNodes>
        0 -1 2024722 7.3897913098335266e-02</internalNodes>
      <leafValues>
        -7.7493607997894287e-01 7.4193549156188965e-01</leafValues></_>
    <_>
      <internalNodes>
        0 -1 2783851 4.5390643179416656e-02</internalNodes>
      <leafValues>
        -4.6135413646697998e-01 7.1245235204696655e-01</leafValues></_>
    <_>
      <internalNodes>
        0 -1 4510061 -5.8061996242031455e-05</internalNodes>
      <leafValues>
        6.1995816230773926e-01 -4.2504715919494629e-01</leafValues></_>
    <_>
      <internalNodes>
        0 -1 362432 -2.1446235477924347e-03</internalNodes>
      <leafValues>
        -8.5750204324722290e-01 3.2968178391456604e-01</leafValues></_>
    <_>
      <internalNodes>
        0 -1 1191699 3.9151421515271068e-04</internalNodes>
      <leafValues>
        -6.0611236095428467e-01 5.3057789802551270e-01</leafValues></_></weakClassifiers></stage1>
</opencv_storage>
